<?xml version="1.0"?>
<opencv_storage>
<cascade>
  <stageType>BOOST</stageType>
  <featureType>HAAR</featureType>
  <height>24</height>
  <width>24</width>
  <stageParams>
    <boostType>GAB</boostType>
    <minHitRate>9.9500000476837158e-01</minHitRate>
    <maxFalseAlarm>5.0000000000000000e-01</maxFalseAlarm>
    <weightTrimRate>9.4999999999999996e-01</weightTrimRate>
    <maxDepth>1</maxDepth>
    <maxWeakCount>100</maxWeakCount></stageParams>
  <featureParams>
    <maxCatCount>0</maxCatCount>
    <featSize>1</featSize>
    <mode>BASIC</mode></featureParams>
  <stageNum>16</stageNum>
  <stages>
    <!-- stage 0 -->
    <_>
      <maxWeakCount>4</maxWeakCount>
      <stageThreshold>-1.8147583007812500e+00</stageThreshold>
      <weakClassifiers>
        <_>
          <internalNodes>
            0 -1 21 -6.6479191184043884e-02</internalNodes>
          <leafValues>
            2.9126213863492012e-02 -9.4113963842391968e-01</leafValues></_>
        <_>
          <internalNodes>
            0 -1 22 2.7265414595603943e-02</internalNodes>
          <leafValues>
            -7.9992949962615967e-01 5.8267384767532349e-01</leafValues></_>
        <_>
          <internalNodes>
            0 -1 63 -2.9164068400859833e-02</internalNodes>
          <leafValues>
            7.2484165430068970e-01 -5.2397072315216064e-01</leafValues></_>
        <_>
          <internalNodes>
            0 -1 76 2.1293200552463531e-02</internalNodes>
          <leafValues>
            -5.1998418569564819e-01 7.4587279558181763e-01</leafValues></_></weakClassifiers></_>
    <!-- stage 1 -->
    <_>
      <maxWeakCount>7</maxWeakCount>
      <stageThreshold>-1.8391872644424438e+00</stageThreshold>
      <weakClassifiers>
        <_>
          <internalNodes>
            0 -1 36 4.1663240641355515e-02</internalNodes>
          <leafValues>
            -9.1078960895538330e-01 2.6829269528388977e-01</leafValues></_>
        <_>
          <internalNodes>
            0 -1 8 -7.9899124801158905e-02</internalNodes>
          <leafValues>
            2.4374766647815704e-01 -7.6024252176284790e-01</leafValues></_>
        <_>
          <internalNodes>
            0 -1 85 -3.5382278263568878e-02</internalNodes>
          <leafValues>
            5.5383217334747314e-01 -5.0234383344650269e-01</leafValues></_>
        <_>
          <internalNodes>
            0 -1 88 2.3678224533796310e-02</internalNodes>
          <leafValues>
            -2.9627752304077148e-01 7.3847335577011108e-01</leafValues></_>
        <_>
          <internalNodes>
            0 -1 48 -8.9074566960334778e-02</internalNodes>
          <leafValues>
            7.2453451156616211e-01 -2.4108383059501648e-01</leafValues></_>
        <_>
          <internalNodes>
            0 -1 116 -3.0711572617292404e-04</internalNodes>
          <leafValues>
            -6.9440001249313354e-01 2.8518721461296082e-01</leafValues></_>
        <_>
          <internalNodes>
            0 -1 1 -4.1436076164245605e-02</internalNodes>
          <leafValues>
            5.8636289834976196e-01 -2.8482824563980103e-01</leafValues></_></weakClassifiers></_>
    <!-- stage 2 -->
    <_>
      <maxWeakCount>6</maxWeakCount>
      <stageThreshold>-2.3896501064300537e+00</stageThreshold>
      <weakClassifiers>
        <_>
          <internalNodes>
            0 -1 25 -5.1638357341289520e-02</internalNodes>
          <leafValues>
            3.1428572535514832e-01 -9.0750747919082642e-01</leafValues></_>
        <_>
          <internalNodes>
            0 -1 11 -6.7553758621215820e-02</internalNodes>
          <leafValues>
            2.5936672091484070e-01 -7.0116186141967773e-01</leafValues></_>
        <_>
          <internalNodes>
            0 -1 99 -8.3092421293258667e-02</internalNodes>
          <leafValues>
            -9.5701360702514648e-01 9.8570637404918671e-02</leafValues></_>
        <_>
          <internalNodes>
            0 -1 57 4.0276697836816311e-04</internalNodes>
          <leafValues>
            -7.3662513494491577e-01 2.0356985926628113e-01</leafValues></_>
        <_>
          <internalNodes>
            0 -1 9 -1.8170628696680069e-02</internalNodes>
          <leafValues>
            4.6831992268562317e-01 -3.8270482420921326e-01</leafValues></_>
        <_>
          <internalNodes>
            0 -1 115 1.6276311362162232e-04</internalNodes>
          <leafValues>
            2.3977844417095184e-01 -7.3624294996261597e-01</leafValues></_></weakClassifiers></_>
    <!-- stage 3 -->
    <_>
      <maxWeakCount>7</maxWeakCount>
      <stageThreshold>-1.8879157304763794e+00</stageThreshold>
      <weakClassifiers>
        <_>
          <internalNodes>
            0 -1 37 3.8650825619697571e-02</internalNodes>
          <leafValues>
            -9.0886998176574707e-01 -7.4074074625968933e-02</leafValues></_>
        <_>
          <internalNodes>
            0 -1 96 5.0427213311195374e-02</internalNodes>
          <leafValues>
            -6.3274794816970825e-01 4.2768728733062744e-01</leafValues></_>
        <_>
          <internalNodes>
            0 -1 47 -7.9532358795404434e-03</internalNodes>
          <leafValues>
            3.3902555704116821e-01 -5.5107402801513672e-01</leafValues></_>
        <_>
          <internalNodes>
            0 -1 61 2.2230528295040131e-02</internalNodes>
          <leafValues>
            -2.7390140295028687e-01 6.4024484157562256e-01</leafValues></_>
        <_>
          <internalNodes>
            0 -1 93 -1.4769532717764378e-02</internalNodes>
          <leafValues>
            5.6239944696426392e-01 -3.1855043768882751e-01</leafValues></_>
        <_>
          <internalNodes>
            0 -1 64 3.2944396138191223e-02</internalNodes>
          <leafValues>
            -3.0492681264877319e-01 5.4776668548583984e-01</leafValues></_>
        <_>
          <internalNodes>
            0 -1 118 5.2025483455508947e-04</internalNodes>
          <leafValues>
            2.2120502591133118e-01 -8.5678839683532715e-01</leafValues></_></weakClassifiers></_>
    <!-- stage 4 -->
    <_>
      <maxWeakCount>6</maxWeakCount>
      <stageThreshold>-1.8942456245422363e+00</stageThreshold>
      <weakClassifiers>
        <_>
          <internalNodes>
            0 -1 31 -4.0112357586622238e-02</internalNodes>
          <leafValues>
            3.6363637447357178e-01 -8.9868891239166260e-01</leafValues></_>
        <_>
          <internalNodes>
            0 -1 19 -5.7953879237174988e-02</internalNodes>
          <leafValues>
            6.9605208933353424e-02 -7.1587353944778442e-01</leafValues></_>
        <_>
          <internalNodes>
            0 -1 2 -3.6458560824394226e-01</internalNodes>
          <leafValues>
            1.2613748013973236e-01 -8.5669451951980591e-01</leafValues></_>
        <_>
          <internalNodes>
            0 -1 119 -7.7709101606160402e-04</internalNodes>
          <leafValues>
            -7.1145743131637573e-01 1.4893445372581482e-01</leafValues></_>
        <_>
          <internalNodes>
            0 -1 60 4.5491335913538933e-03</internalNodes>
          <leafValues>
            -5.1288622617721558e-01 2.7497199177742004e-01</leafValues></_>
        <_>
          <internalNodes>
            0 -1 12 1.1817226186394691e-02</internalNodes>
          <leafValues>
            1.7666403949260712e-01 -8.2972699403762817e-01</leafValues></_></weakClassifiers></_>
    <!-- stage 5 -->
    <_>
      <maxWeakCount>7</maxWeakCount>
      <stageThreshold>-2.2484936714172363e+00</stageThreshold>
      <weakClassifiers>
        <_>
          <internalNodes>
            0 -1 89 1.2451858259737492e-02</internalNodes>
          <leafValues>
            -9.2620867490768433e-01 -3.4375000000000000e-01</leafValues></_>
        <_>
          <internalNodes>
            0 -1 52 -2.1605074871331453e-03</internalNodes>
          <leafValues>
            -5.7581053115427494e-03 -7.5569099187850952e-01</leafValues></_>
        <_>
          <internalNodes>
            0 -1 49 -1.3636450748890638e-03</internalNodes>
          <leafValues>
            2.7139380574226379e-01 -5.6422519683837891e-01</leafValues></_>
        <_>
          <internalNodes>
            0 -1 103 -5.0726789049804211e-04</internalNodes>
          <leafValues>
            4.0458863973617554e-01 -3.9172416925430298e-01</leafValues></_>
        <_>
          <internalNodes>
            0 -1 101 -4.6526611549779773e-04</internalNodes>
          <leafValues>
            3.3760225772857666e-01 -4.5028516650199890e-01</leafValues></_>
        <_>
          <internalNodes>
            0 -1 90 -3.5998135805130005e-02</internalNodes>
          <leafValues>
            8.2947272062301636e-01 -2.0225781202316284e-01</leafValues></_>
        <_>
          <internalNodes>
            0 -1 120 -2.3531354963779449e-02</internalNodes>
          <leafValues>
            2.0627942681312561e-01 -1.</leafValues></_></weakClassifiers></_>
    <!-- stage 6 -->
    <_>
      <maxWeakCount>8</maxWeakCount>
      <stageThreshold>-2.1789345741271973e+00</stageThreshold>
      <weakClassifiers>
        <_>
          <internalNodes>
            0 -1 59 -3.9212025701999664e-02</internalNodes>
          <leafValues>
            -3.2653060555458069e-01 -9.1635453701019287e-01</leafValues></_>
        <_>
          <internalNodes>
            0 -1 68 -1.1418738961219788e-01</internalNodes>
          <leafValues>
            -7.7798938751220703e-01 -1.6834911704063416e-01</leafValues></_>
        <_>
          <internalNodes>
            0 -1 75 -1.2717749923467636e-03</internalNodes>
          <leafValues>
            -7.2773200273513794e-01 8.0357208847999573e-02</leafValues></_>
        <_>
          <internalNodes>
            0 -1 5 -5.1370728760957718e-03</internalNodes>
          <leafValues>
            3.9885517954826355e-01 -3.5494041442871094e-01</leafValues></_>
        <_>
          <internalNodes>
            0 -1 97 1.1608291417360306e-02</internalNodes>
          <leafValues>
            -3.1486046314239502e-01 4.1335698962211609e-01</leafValues></_>
        <_>
          <internalNodes>
            0 -1 55 -5.4096460342407227e-02</internalNodes>
          <leafValues>
            -9.6254873275756836e-01 1.6518492996692657e-01</leafValues></_>
        <_>
          <internalNodes>
            0 -1 0 -1.9835506100207567e-04</internalNodes>
          <leafValues>
            -7.1055573225021362e-01 1.4920842647552490e-01</leafValues></_>
        <_>
          <internalNodes>
            0 -1 20 -1.2983523774892092e-03</internalNodes>
          <leafValues>
            -1. 9.4877243041992188e-02</leafValues></_></weakClassifiers></_>
    <!-- stage 7 -->
    <_>
      <maxWeakCount>8</maxWeakCount>
      <stageThreshold>-1.9287389516830444e+00</stageThreshold>
      <weakClassifiers>
        <_>
          <internalNodes>
            0 -1 114 -5.0769329071044922e-02</internalNodes>
          <leafValues>
            1.8518517911434174e-01 -8.9958161115646362e-01</leafValues></_>
        <_>
          <internalNodes>
            0 -1 53 -1.4560853596776724e-03</internalNodes>
          <leafValues>
            -7.6131470501422882e-02 -7.1965163946151733e-01</leafValues></_>
        <_>
          <internalNodes>
            0 -1 91 -9.0606063604354858e-03</internalNodes>
          <leafValues>
            2.0458917319774628e-01 -5.5168563127517700e-01</leafValues></_>
        <_>
          <internalNodes>
            0 -1 29 2.9765570070594549e-03</internalNodes>
          <leafValues>
            -4.6311753988265991e-01 3.3582523465156555e-01</leafValues></_>
        <_>
          <internalNodes>
            0 -1 108 2.3422915488481522e-02</internalNodes>
          <leafValues>
            -1.4717575907707214e-01 7.5786626338958740e-01</leafValues></_>
        <_>
          <internalNodes>
            0 -1 121 -3.3900310518220067e-04</internalNodes>
          <leafValues>
            -6.3787889480590820e-01 2.3967404663562775e-01</leafValues></_>
        <_>
          <internalNodes>
            0 -1 40 8.5252076387405396e-03</internalNodes>
          <leafValues>
            -2.8573200106620789e-01 4.7840726375579834e-01</leafValues></_>
        <_>
          <internalNodes>
            0 -1 16 1.2087405775673687e-04</internalNodes>
          <leafValues>
            -4.2265370488166809e-01 2.6374867558479309e-01</leafValues></_></weakClassifiers></_>
    <!-- stage 8 -->
    <_>
      <maxWeakCount>8</maxWeakCount>
      <stageThreshold>-1.9444819688796997e+00</stageThreshold>
      <weakClassifiers>
        <_>
          <internalNodes>
            0 -1 87 -4.9821898341178894e-02</internalNodes>
          <leafValues>
            3.0434781312942505e-01 -8.9862853288650513e-01</leafValues></_>
        <_>
          <internalNodes>
            0 -1 34 -2.3408450186252594e-02</internalNodes>
          <leafValues>
            -6.8780821748077869e-03 -6.7238044738769531e-01</leafValues></_>
        <_>
          <internalNodes>
            0 -1 107 -4.1146334842778742e-04</internalNodes>
          <leafValues>
            2.2674071788787842e-01 -5.1240330934524536e-01</leafValues></_>
        <_>
          <internalNodes>
            0 -1 66 2.0436506019905210e-04</internalNodes>
          <leafValues>
            1.6254961490631104e-01 -6.5583342313766479e-01</leafValues></_>
        <_>
          <internalNodes>
            0 -1 14 5.8587593957781792e-04</internalNodes>
          <leafValues>
            1.4135998487472534e-01 -9.4905245304107666e-01</leafValues></_>
        <_>
          <internalNodes>
            0 -1 15 -6.0234387638047338e-04</internalNodes>
          <leafValues>
            -7.4274766445159912e-01 1.4460365474224091e-01</leafValues></_>
        <_>
          <internalNodes>
            0 -1 42 1.6615288332104683e-03</internalNodes>
          <leafValues>
            -2.7836716175079346e-01 4.5088404417037964e-01</leafValues></_>
        <_>
          <internalNodes>
            0 -1 92 -7.1889873652253300e-05</internalNodes>
          <leafValues>
            2.6217374205589294e-01 -5.3861808776855469e-01</leafValues></_></weakClassifiers></_>
    <!-- stage 9 -->
    <_>
      <maxWeakCount>9</maxWeakCount>
      <stageThreshold>-2.0734651088714600e+00</stageThreshold>
      <weakClassifiers>
        <_>
          <internalNodes>
            0 -1 105 -8.6948245763778687e-02</internalNodes>
          <leafValues>
            2.8000000119209290e-01 -8.9970147609710693e-01</leafValues></_>
        <_>
          <internalNodes>
            0 -1 58 4.3010450899600983e-02</internalNodes>
          <leafValues>
            -6.1037397384643555e-01 2.6671138405799866e-01</leafValues></_>
        <_>
          <internalNodes>
            0 -1 24 -4.6914860606193542e-02</internalNodes>
          <leafValues>
            3.1770041584968567e-01 -4.0577983856201172e-01</leafValues></_>
        <_>
          <internalNodes>
            0 -1 39 3.1676895450800657e-03</internalNodes>
          <leafValues>
            -2.1496239304542542e-01 5.3371822834014893e-01</leafValues></_>
        <_>
          <internalNodes>
            0 -1 111 -2.8735608793795109e-03</internalNodes>
          <leafValues>
            6.0838776826858521e-01 -1.7037323117256165e-01</leafValues></_>
        <_>
          <internalNodes>
            0 -1 81 -4.7300094738602638e-03</internalNodes>
          <leafValues>
            -7.4681806564331055e-01 1.5948572754859924e-01</leafValues></_>
        <_>
          <internalNodes>
            0 -1 69 -5.4549505002796650e-03</internalNodes>
          <leafValues>
            6.2749302387237549e-01 -1.6497172415256500e-01</leafValues></_>
        <_>
          <internalNodes>
            0 -1 84 1.2519200099632144e-03</internalNodes>
          <leafValues>
            1.6181266307830811e-01 -7.9174846410751343e-01</leafValues></_>
        <_>
          <internalNodes>
            0 -1 26 1.1180371511727571e-03</internalNodes>
          <leafValues>
            7.1399182081222534e-02 -1.</leafValues></_></weakClassifiers></_>
    <!-- stage 10 -->
    <_>
      <maxWeakCount>9</maxWeakCount>
      <stageThreshold>-2.1103742122650146e+00</stageThreshold>
      <weakClassifiers>
        <_>
          <internalNodes>
            0 -1 51 -4.5156072825193405e-02</internalNodes>
          <leafValues>
            2.1739129722118378e-01 -8.9743590354919434e-01</leafValues></_>
        <_>
          <internalNodes>
            0 -1 82 8.1330956891179085e-03</internalNodes>
          <leafValues>
            -6.3471835851669312e-01 1.0393016040325165e-01</leafValues></_>
        <_>
          <internalNodes>
            0 -1 6 -5.4742284119129181e-02</internalNodes>
          <leafValues>
            3.3105233311653137e-01 -3.5506007075309753e-01</leafValues></_>
        <_>
          <internalNodes>
            0 -1 10 -8.8654272258281708e-04</internalNodes>
          <leafValues>
            -7.8948235511779785e-01 1.4211185276508331e-01</leafValues></_>
        <_>
          <internalNodes>
            0 -1 17 -6.7284747958183289e-02</internalNodes>
          <leafValues>
            7.0038920640945435e-01 -1.5681205689907074e-01</leafValues></_>
        <_>
          <internalNodes>
            0 -1 72 6.4664706587791443e-03</internalNodes>
          <leafValues>
            -2.1688629686832428e-01 5.1857733726501465e-01</leafValues></_>
        <_>
          <internalNodes>
            0 -1 78 -1.6783131286501884e-03</internalNodes>
          <leafValues>
            5.5956625938415527e-01 -2.8577595949172974e-01</leafValues></_>
        <_>
          <internalNodes>
            0 -1 30 1.7631620168685913e-02</internalNodes>
          <leafValues>
            -1.6808150708675385e-01 6.1074608564376831e-01</leafValues></_>
        <_>
          <internalNodes>
            0 -1 109 -1.7712521366775036e-03</internalNodes>
          <leafValues>
            4.6228405833244324e-01 -2.5032979249954224e-01</leafValues></_></weakClassifiers></_>
    <!-- stage 11 -->
    <_>
      <maxWeakCount>9</maxWeakCount>
      <stageThreshold>-1.9305763244628906e+00</stageThreshold>
      <weakClassifiers>
        <_>
          <internalNodes>
            0 -1 86 -8.7287664413452148e-02</internalNodes>
          <leafValues>
            6.0000002384185791e-01 -8.9112424850463867e-01</leafValues></_>
        <_>
          <internalNodes>
            0 -1 38 1.5613501891493797e-02</internalNodes>
          <leafValues>
            -5.9139484167098999e-01 3.0671229958534241e-01</leafValues></_>
        <_>
          <internalNodes>
            0 -1 106 1.9709993153810501e-02</internalNodes>
          <leafValues>
            -3.3875721693038940e-01 3.5106119513511658e-01</leafValues></_>
        <_>
          <internalNodes>
            0 -1 112 -1.0111374780535698e-02</internalNodes>
          <leafValues>
            6.3215458393096924e-01 -1.8746790289878845e-01</leafValues></_>
        <_>
          <internalNodes>
            0 -1 73 -1.0119694052264094e-03</internalNodes>
          <leafValues>
            -7.0580464601516724e-01 1.5832293033599854e-01</leafValues></_>
        <_>
          <internalNodes>
            0 -1 35 -1.1184237897396088e-02</internalNodes>
          <leafValues>
            1.5897180140018463e-01 -8.5825800895690918e-01</leafValues></_>
        <_>
          <internalNodes>
            0 -1 56 5.7311510317958891e-05</internalNodes>
          <leafValues>
            -4.7668048739433289e-01 1.7443080246448517e-01</leafValues></_>
        <_>
          <internalNodes>
            0 -1 74 3.1317654065787792e-03</internalNodes>
          <leafValues>
            1.1245817691087723e-01 -9.1701817512512207e-01</leafValues></_>
        <_>
          <internalNodes>
            0 -1 28 -4.9354075454175472e-03</internalNodes>
          <leafValues>
            -6.2559062242507935e-01 1.2509541213512421e-01</leafValues></_></weakClassifiers></_>
    <!-- stage 12 -->
    <_>
      <maxWeakCount>8</maxWeakCount>
      <stageThreshold>-1.8350069522857666e+00</stageThreshold>
      <weakClassifiers>
        <_>
          <internalNodes>
            0 -1 67 -8.3181038498878479e-02</internalNodes>
          <leafValues>
            6.3636362552642822e-01 -8.9224392175674438e-01</leafValues></_>
        <_>
          <internalNodes>
            0 -1 7 -5.2967566996812820e-02</internalNodes>
          <leafValues>
            -1.1628225445747375e-01 -6.8928676843643188e-01</leafValues></_>
        <_>
          <internalNodes>
            0 -1 77 -3.3208400011062622e-02</internalNodes>
          <leafValues>
            7.3979520797729492e-01 -2.1378637850284576e-01</leafValues></_>
        <_>
          <internalNodes>
            0 -1 79 -1.4296572189778090e-03</internalNodes>
          <leafValues>
            2.9208087921142578e-01 -4.1120341420173645e-01</leafValues></_>
        <_>
          <internalNodes>
            0 -1 94 1.2066770344972610e-02</internalNodes>
          <leafValues>
            -2.5491511821746826e-01 3.9692834019660950e-01</leafValues></_>
        <_>
          <internalNodes>
            0 -1 71 -1.8998465966433287e-03</internalNodes>
          <leafValues>
            -8.7782186269760132e-01 1.1937934160232544e-01</leafValues></_>
        <_>
          <internalNodes>
            0 -1 102 -1.4962468994781375e-03</internalNodes>
          <leafValues>
            3.7950772047042847e-01 -2.7542689442634583e-01</leafValues></_>
        <_>
          <internalNodes>
            0 -1 110 -3.3348905853927135e-03</internalNodes>
          <leafValues>
            -1. 1.3063275814056396e-01</leafValues></_></weakClassifiers></_>
    <!-- stage 13 -->
    <_>
      <maxWeakCount>8</maxWeakCount>
      <stageThreshold>-1.8384149074554443e+00</stageThreshold>
      <weakClassifiers>
        <_>
          <internalNodes>
            0 -1 65 -4.1759110987186432e-02</internalNodes>
          <leafValues>
            -8.9530038833618164e-01 2.6315790414810181e-01</leafValues></_>
        <_>
          <internalNodes>
            0 -1 23 -1.9741253927350044e-02</internalNodes>
          <leafValues>
            1.8952420353889465e-01 -6.2916409969329834e-01</leafValues></_>
        <_>
          <internalNodes>
            0 -1 43 7.9037453979253769e-03</internalNodes>
          <leafValues>
            -2.5744751095771790e-01 5.1638299226760864e-01</leafValues></_>
        <_>
          <internalNodes>
            0 -1 98 1.9262381829321384e-03</internalNodes>
          <leafValues>
            -4.1761955618858337e-01 2.3904281854629517e-01</leafValues></_>
        <_>
          <internalNodes>
            0 -1 117 -5.4001586977392435e-04</internalNodes>
          <leafValues>
            -6.2305712699890137e-01 1.5382172167301178e-01</leafValues></_>
        <_>
          <internalNodes>
            0 -1 4 -5.3310327231884003e-02</internalNodes>
          <leafValues>
            -9.7068774700164795e-01 1.0372360795736313e-01</leafValues></_>
        <_>
          <internalNodes>
            0 -1 32 -5.7143010199069977e-03</internalNodes>
          <leafValues>
            3.9486476778984070e-01 -2.7368819713592529e-01</leafValues></_>
        <_>
          <internalNodes>
            0 -1 3 4.9247294664382935e-02</internalNodes>
          <leafValues>
            -1.7107702791690826e-01 6.9612210988998413e-01</leafValues></_></weakClassifiers></_>
    <!-- stage 14 -->
    <_>
      <maxWeakCount>10</maxWeakCount>
      <stageThreshold>-1.9221698045730591e+00</stageThreshold>
      <weakClassifiers>
        <_>
          <internalNodes>
            0 -1 83 -4.2214374989271164e-02</internalNodes>
          <leafValues>
            1. -8.8902008533477783e-01</leafValues></_>
        <_>
          <internalNodes>
            0 -1 54 -1.6028456157073379e-03</internalNodes>
          <leafValues>
            -9.1849960386753082e-02 -6.6377383470535278e-01</leafValues></_>
        <_>
          <internalNodes>
            0 -1 27 -1.2509249150753021e-02</internalNodes>
          <leafValues>
            2.4968007206916809e-01 -4.0159010887145996e-01</leafValues></_>
        <_>
          <internalNodes>
            0 -1 80 4.8738867044448853e-03</internalNodes>
          <leafValues>
            8.8069178164005280e-02 -1.</leafValues></_>
        <_>
          <internalNodes>
            0 -1 122 3.5537235089577734e-04</internalNodes>
          <leafValues>
            1.2088608741760254e-01 -7.3382657766342163e-01</leafValues></_>
        <_>
          <internalNodes>
            0 -1 70 -4.5010712929069996e-03</internalNodes>
          <leafValues>
            5.9380644559860229e-01 -1.5412501990795135e-01</leafValues></_>
        <_>
          <internalNodes>
            0 -1 95 -2.0304917416069657e-04</internalNodes>
          <leafValues>
            1.9911326467990875e-01 -4.9840211868286133e-01</leafValues></_>
        <_>
          <internalNodes>
            0 -1 18 -6.8840938620269299e-03</internalNodes>
          <leafValues>
            3.3058780431747437e-01 -2.9929801821708679e-01</leafValues></_>
        <_>
          <internalNodes>
            0 -1 45 -2.4825589731335640e-02</internalNodes>
          <leafValues>
            6.0715520381927490e-01 -1.5198445320129395e-01</leafValues></_>
        <_>
          <internalNodes>
            0 -1 46 4.6123815700411797e-03</internalNodes>
          <leafValues>
            -2.3558948934078217e-01 4.6195122599601746e-01</leafValues></_></weakClassifiers></_>
    <!-- stage 15 -->
    <_>
      <maxWeakCount>9</maxWeakCount>
      <stageThreshold>-1.9268471002578735e+00</stageThreshold>
      <weakClassifiers>
        <_>
          <internalNodes>
            0 -1 113 -7.3428303003311157e-02</internalNodes>
          <leafValues>
            7.7777779102325439e-01 -8.9118862152099609e-01</leafValues></_>
        <_>
          <internalNodes>
            0 -1 33 -1.1977595090866089e-01</internalNodes>
          <leafValues>
            1.5404425561428070e-01 -5.8393049240112305e-01</leafValues></_>
        <_>
          <internalNodes>
            0 -1 50 -6.8752035498619080e-02</internalNodes>
          <leafValues>
            4.9077636003494263e-01 -2.6850080490112305e-01</leafValues></_>
        <_>
          <internalNodes>
            0 -1 104 -2.2042568773031235e-02</internalNodes>
          <leafValues>
            -7.4071836471557617e-01 1.3707649707794189e-01</leafValues></_>
        <_>
          <internalNodes>
            0 -1 100 2.6757235173135996e-03</internalNodes>
          <leafValues>
            1.5538415312767029e-01 -9.1275149583816528e-01</leafValues></_>
        <_>
          <internalNodes>
            0 -1 41 7.0520082954317331e-04</internalNodes>
          <leafValues>
            -2.5325381755828857e-01 4.2625060677528381e-01</leafValues></_>
        <_>
          <internalNodes>
            0 -1 62 -3.1615505577065051e-04</internalNodes>
          <leafValues>
            2.8050199151039124e-01 -3.2167288661003113e-01</leafValues></_>
        <_>
          <internalNodes>
            0 -1 13 -2.3159920237958431e-03</internalNodes>
          <leafValues>
            -8.4270346164703369e-01 1.4218431711196899e-01</leafValues></_>
        <_>
          <internalNodes>
            0 -1 44 8.5570201277732849e-02</internalNodes>
          <leafValues>
            7.5572252273559570e-02 -8.4995692968368530e-01</leafValues></_></weakClassifiers></_></stages>
  <features>
    <_>
      <rects>
        <_>
          0 0 1 2 -1.</_>
        <_>
          0 1 1 1 2.</_></rects>
      <tilted>0</tilted></_>
    <_>
      <rects>
        <_>
          0 1 12 12 -1.</_>
        <_>
          0 1 6 6 2.</_>
        <_>
          6 7 6 6 2.</_></rects>
      <tilted>0</tilted></_>
    <_>
      <rects>
        <_>
          0 2 21 8 -1.</_>
        <_>
          7 2 7 8 2.</_></rects>
      <tilted>0</tilted></_>
    <_>
      <rects>
        <_>
          0 3 8 12 -1.</_>
        <_>
          0 3 4 6 2.</_>
        <_>
          4 9 4 6 2.</_></rects>
      <tilted>0</tilted></_>
    <_>
      <rects>
        <_>
          0 3 24 3 -1.</_>
        <_>
          12 3 12 3 2.</_></rects>
      <tilted>0</tilted></_>
    <_>
      <rects>
        <_>
          0 3 15 2 -1.</_>
        <_>
          0 4 15 1 2.</_></rects>
      <tilted>0</tilted></_>
    <_>
      <rects>
        <_>
          0 6 6 17 -1.</_>
        <_>
          3 6 3 17 2.</_></rects>
      <tilted>0</tilted></_>
    <_>
      <rects>
        <_>
          0 6 6 18 -1.</_>
        <_>
          3 6 3 18 2.</_></rects>
      <tilted>0</tilted></_>
    <_>
      <rects>
        <_>
          0 6 8 15 -1.</_>
        <_>
          4 6 4 15 2.</_></rects>
      <tilted>0</tilted></_>
    <_>
      <rects>
        <_>
          0 6 14 2 -1.</_>
        <_>
          7 6 7 2 2.</_></rects>
      <tilted>0</tilted></_>
    <_>
      <rects>
        <_>
          0 10 3 2 -1.</_>
        <_>
          0 11 3 1 2.</_></rects>
      <tilted>0</tilted></_>
    <_>
      <rects>
        <_>
          0 11 12 10 -1.</_>
        <_>
          0 11 6 5 2.</_>
        <_>
          6 16 6 5 2.</_></rects>
      <tilted>0</tilted></_>
    <_>
      <rects>
        <_>
          0 11 24 1 -1.</_>
        <_>
          12 11 12 1 2.</_></rects>
      <tilted>0</tilted></_>
    <_>
      <rects>
        <_>
          0 16 6 2 -1.</_>
        <_>
          0 17 6 1 2.</_></rects>
      <tilted>0</tilted></_>
    <_>
      <rects>
        <_>
          0 21 1 2 -1.</_>
        <_>
          0 22 1 1 2.</_></rects>
      <tilted>0</tilted></_>
    <_>
      <rects>
        <_>
          0 21 2 2 -1.</_>
        <_>
          0 22 2 1 2.</_></rects>
      <tilted>0</tilted></_>
    <_>
      <rects>
        <_>
          1 0 10 2 -1.</_>
        <_>
          1 1 10 1 2.</_></rects>
      <tilted>0</tilted></_>
    <_>
      <rects>
        <_>
          1 1 10 10 -1.</_>
        <_>
          1 1 5 5 2.</_>
        <_>
          6 6 5 5 2.</_></rects>
      <tilted>0</tilted></_>
    <_>
      <rects>
        <_>
          1 3 17 2 -1.</_>
        <_>
          1 4 17 1 2.</_></rects>
      <tilted>0</tilted></_>
    <_>
      <rects>
        <_>
          1 7 6 14 -1.</_>
        <_>
          4 7 3 14 2.</_></rects>
      <tilted>0</tilted></_>
    <_>
      <rects>
        <_>
          1 9 2 2 -1.</_>
        <_>
          1 10 2 1 2.</_></rects>
      <tilted>0</tilted></_>
    <_>
      <rects>
        <_>
          1 13 14 10 -1.</_>
        <_>
          1 13 7 5 2.</_>
        <_>
          8 18 7 5 2.</_></rects>
      <tilted>0</tilted></_>
    <_>
      <rects>
        <_>
          1 15 8 8 -1.</_>
        <_>
          1 15 4 4 2.</_>
        <_>
          5 19 4 4 2.</_></rects>
      <tilted>0</tilted></_>
    <_>
      <rects>
        <_>
          2 2 4 10 -1.</_>
        <_>
          2 2 2 5 2.</_>
        <_>
          4 7 2 5 2.</_></rects>
      <tilted>0</tilted></_>
    <_>
      <rects>
        <_>
          2 3 6 19 -1.</_>
        <_>
          5 3 3 19 2.</_></rects>
      <tilted>0</tilted></_>
    <_>
      <rects>
        <_>
          2 9 4 8 -1.</_>
        <_>
          4 9 2 8 2.</_></rects>
      <tilted>0</tilted></_>
    <_>
      <rects>
        <_>
          2 10 2 2 -1.</_>
        <_>
          2 11 2 1 2.</_></rects>
      <tilted>0</tilted></_>
    <_>
      <rects>
        <_>
          2 14 4 10 -1.</_>
        <_>
          4 14 2 10 2.</_></rects>
      <tilted>0</tilted></_>
    <_>
      <rects>
        <_>
          2 16 20 2 -1.</_>
        <_>
          2 16 10 1 2.</_>
        <_>
          12 17 10 1 2.</_></rects>
      <tilted>0</tilted></_>
    <_>
      <rects>
        <_>
          2 17 4 6 -1.</_>
        <_>
          2 17 2 3 2.</_>
        <_>
          4 20 2 3 2.</_></rects>
      <tilted>0</tilted></_>
    <_>
      <rects>
        <_>
          2 19 10 4 -1.</_>
        <_>
          2 19 5 2 2.</_>
        <_>
          7 21 5 2 2.</_></rects>
      <tilted>0</tilted></_>
    <_>
      <rects>
        <_>
          3 1 10 4 -1.</_>
        <_>
          3 1 5 2 2.</_>
        <_>
          8 3 5 2 2.</_></rects>
      <tilted>0</tilted></_>
    <_>
      <rects>
        <_>
          3 5 12 1 -1.</_>
        <_>
          9 5 6 1 2.</_></rects>
      <tilted>0</tilted></_>
    <_>
      <rects>
        <_>
          3 10 17 8 -1.</_>
        <_>
          3 14 17 4 2.</_></rects>
      <tilted>0</tilted></_>
    <_>
      <rects>
        <_>
          4 1 12 4 -1.</_>
        <_>
          4 3 12 2 2.</_></rects>
      <tilted>0</tilted></_>
    <_>
      <rects>
        <_>
          4 3 1 6 -1.</_>
        <_>
          4 5 1 2 2.</_></rects>
      <tilted>0</tilted></_>
    <_>
      <rects>
        <_>
          4 4 6 8 -1.</_>
        <_>
          4 4 3 4 2.</_>
        <_>
          7 8 3 4 2.</_></rects>
      <tilted>0</tilted></_>
    <_>
      <rects>
        <_>
          4 4 8 6 -1.</_>
        <_>
          4 4 4 3 2.</_>
        <_>
          8 7 4 3 2.</_></rects>
      <tilted>0</tilted></_>
    <_>
      <rects>
        <_>
          4 6 6 4 -1.</_>
        <_>
          4 6 3 2 2.</_>
        <_>
          7 8 3 2 2.</_></rects>
      <tilted>0</tilted></_>
    <_>
      <rects>
        <_>
          4 11 2 5 -1.</_>
        <_>
          5 11 1 5 2.</_></rects>
      <tilted>0</tilted></_>
    <_>
      <rects>
        <_>
          4 12 4 4 -1.</_>
        <_>
          6 12 2 4 2.</_></rects>
      <tilted>0</tilted></_>
    <_>
      <rects>
        <_>
          4 17 2 2 -1.</_>
        <_>
          4 17 1 1 2.</_>
        <_>
          5 18 1 1 2.</_></rects>
      <tilted>0</tilted></_>
    <_>
      <rects>
        <_>
          4 18 4 2 -1.</_>
        <_>
          4 18 2 1 2.</_>
        <_>
          6 19 2 1 2.</_></rects>
      <tilted>0</tilted></_>
    <_>
      <rects>
        <_>
          4 18 4 4 -1.</_>
        <_>
          4 18 2 2 2.</_>
        <_>
          6 20 2 2 2.</_></rects>
      <tilted>0</tilted></_>
    <_>
      <rects>
        <_>
          5 1 8 23 -1.</_>
        <_>
          9 1 4 23 2.</_></rects>
      <tilted>0</tilted></_>
    <_>
      <rects>
        <_>
          5 6 13 6 -1.</_>
        <_>
          5 9 13 3 2.</_></rects>
      <tilted>0</tilted></_>
    <_>
      <rects>
        <_>
          5 8 2 10 -1.</_>
        <_>
          6 8 1 10 2.</_></rects>
      <tilted>0</tilted></_>
    <_>
      <rects>
        <_>
          5 12 4 12 -1.</_>
        <_>
          5 12 2 6 2.</_>
        <_>
          7 18 2 6 2.</_></rects>
      <tilted>0</tilted></_>
    <_>
      <rects>
        <_>
          5 12 14 8 -1.</_>
        <_>
          5 16 14 4 2.</_></rects>
      <tilted>0</tilted></_>
    <_>
      <rects>
        <_>
          5 13 2 8 -1.</_>
        <_>
          5 13 1 4 2.</_>
        <_>
          6 17 1 4 2.</_></rects>
      <tilted>0</tilted></_>
    <_>
      <rects>
        <_>
          5 15 18 5 -1.</_>
        <_>
          14 15 9 5 2.</_></rects>
      <tilted>0</tilted></_>
    <_>
      <rects>
        <_>
          5 20 8 4 -1.</_>
        <_>
          5 22 8 2 2.</_></rects>
      <tilted>0</tilted></_>
    <_>
      <rects>
        <_>
          6 4 5 2 -1.</_>
        <_>
          6 5 5 1 2.</_></rects>
      <tilted>0</tilted></_>
    <_>
      <rects>
        <_>
          6 5 3 2 -1.</_>
        <_>
          6 6 3 1 2.</_></rects>
      <tilted>0</tilted></_>
    <_>
      <rects>
        <_>
          6 6 3 2 -1.</_>
        <_>
          6 7 3 1 2.</_></rects>
      <tilted>0</tilted></_>
    <_>
      <rects>
        <_>
          6 7 12 1 -1.</_>
        <_>
          10 7 4 1 2.</_></rects>
      <tilted>0</tilted></_>
    <_>
      <rects>
        <_>
          6 12 2 1 -1.</_>
        <_>
          7 12 1 1 2.</_></rects>
      <tilted>0</tilted></_>
    <_>
      <rects>
        <_>
          6 12 6 7 -1.</_>
        <_>
          9 12 3 7 2.</_></rects>
      <tilted>0</tilted></_>
    <_>
      <rects>
        <_>
          6 20 12 4 -1.</_>
        <_>
          6 22 12 2 2.</_></rects>
      <tilted>0</tilted></_>
    <_>
      <rects>
        <_>
          7 1 10 4 -1.</_>
        <_>
          7 3 10 2 2.</_></rects>
      <tilted>0</tilted></_>
    <_>
      <rects>
        <_>
          7 9 4 9 -1.</_>
        <_>
          9 9 2 9 2.</_></rects>
      <tilted>0</tilted></_>
    <_>
      <rects>
        <_>
          7 16 4 6 -1.</_>
        <_>
          7 19 4 3 2.</_></rects>
      <tilted>0</tilted></_>
    <_>
      <rects>
        <_>
          7 17 2 2 -1.</_>
        <_>
          7 18 2 1 2.</_></rects>
      <tilted>0</tilted></_>
    <_>
      <rects>
        <_>
          8 0 4 8 -1.</_>
        <_>
          8 4 4 4 2.</_></rects>
      <tilted>0</tilted></_>
    <_>
      <rects>
        <_>
          8 5 5 10 -1.</_>
        <_>
          8 10 5 5 2.</_></rects>
      <tilted>0</tilted></_>
    <_>
      <rects>
        <_>
          8 5 9 15 -1.</_>
        <_>
          8 10 9 5 2.</_></rects>
      <tilted>0</tilted></_>
    <_>
      <rects>
        <_>
          8 13 2 10 -1.</_>
        <_>
          8 13 1 5 2.</_>
        <_>
          9 18 1 5 2.</_></rects>
      <tilted>0</tilted></_>
    <_>
      <rects>
        <_>
          8 14 10 8 -1.</_>
        <_>
          8 14 5 4 2.</_>
        <_>
          13 18 5 4 2.</_></rects>
      <tilted>0</tilted></_>
    <_>
      <rects>
        <_>
          8 17 14 3 -1.</_>
        <_>
          8 18 14 1 2.</_></rects>
      <tilted>0</tilted></_>
    <_>
      <rects>
        <_>
          8 20 8 2 -1.</_>
        <_>
          8 21 8 1 2.</_></rects>
      <tilted>0</tilted></_>
    <_>
      <rects>
        <_>
          8 21 8 2 -1.</_>
        <_>
          8 22 8 1 2.</_></rects>
      <tilted>0</tilted></_>
    <_>
      <rects>
        <_>
          9 0 2 4 -1.</_>
        <_>
          10 0 1 4 2.</_></rects>
      <tilted>0</tilted></_>
    <_>
      <rects>
        <_>
          9 4 2 6 -1.</_>
        <_>
          9 7 2 3 2.</_></rects>
      <tilted>0</tilted></_>
    <_>
      <rects>
        <_>
          9 10 2 10 -1.</_>
        <_>
          10 10 1 10 2.</_></rects>
      <tilted>0</tilted></_>
    <_>
      <rects>
        <_>
          9 16 2 8 -1.</_>
        <_>
          10 16 1 8 2.</_></rects>
      <tilted>0</tilted></_>
    <_>
      <rects>
        <_>
          10 5 2 16 -1.</_>
        <_>
          11 5 1 16 2.</_></rects>
      <tilted>0</tilted></_>
    <_>
      <rects>
        <_>
          10 14 14 6 -1.</_>
        <_>
          10 14 7 3 2.</_>
        <_>
          17 17 7 3 2.</_></rects>
      <tilted>0</tilted></_>
    <_>
      <rects>
        <_>
          11 16 10 6 -1.</_>
        <_>
          11 16 5 3 2.</_>
        <_>
          16 19 5 3 2.</_></rects>
      <tilted>0</tilted></_>
    <_>
      <rects>
        <_>
          12 6 4 2 -1.</_>
        <_>
          12 7 4 1 2.</_></rects>
      <tilted>0</tilted></_>
    <_>
      <rects>
        <_>
          12 16 8 2 -1.</_>
        <_>
          12 17 8 1 2.</_></rects>
      <tilted>0</tilted></_>
    <_>
      <rects>
        <_>
          13 0 2 9 -1.</_>
        <_>
          14 0 1 9 2.</_></rects>
      <tilted>0</tilted></_>
    <_>
      <rects>
        <_>
          13 1 2 23 -1.</_>
        <_>
          14 1 1 23 2.</_></rects>
      <tilted>0</tilted></_>
    <_>
      <rects>
        <_>
          13 6 8 1 -1.</_>
        <_>
          17 6 4 1 2.</_></rects>
      <tilted>0</tilted></_>
    <_>
      <rects>
        <_>
          13 16 6 6 -1.</_>
        <_>
          13 16 3 3 2.</_>
        <_>
          16 19 3 3 2.</_></rects>
      <tilted>0</tilted></_>
    <_>
      <rects>
        <_>
          13 21 2 3 -1.</_>
        <_>
          14 21 1 3 2.</_></rects>
      <tilted>0</tilted></_>
    <_>
      <rects>
        <_>
          14 12 8 6 -1.</_>
        <_>
          18 12 4 6 2.</_></rects>
      <tilted>0</tilted></_>
    <_>
      <rects>
        <_>
          14 13 8 10 -1.</_>
        <_>
          14 13 4 5 2.</_>
        <_>
          18 18 4 5 2.</_></rects>
      <tilted>0</tilted></_>
    <_>
      <rects>
        <_>
          14 14 8 8 -1.</_>
        <_>
          14 14 4 4 2.</_>
        <_>
          18 18 4 4 2.</_></rects>
      <tilted>0</tilted></_>
    <_>
      <rects>
        <_>
          15 0 6 10 -1.</_>
        <_>
          15 0 3 5 2.</_>
        <_>
          18 5 3 5 2.</_></rects>
      <tilted>0</tilted></_>
    <_>
      <rects>
        <_>
          15 6 6 2 -1.</_>
        <_>
          18 6 3 2 2.</_></rects>
      <tilted>0</tilted></_>
    <_>
      <rects>
        <_>
          15 12 8 12 -1.</_>
        <_>
          15 12 4 6 2.</_>
        <_>
          19 18 4 6 2.</_></rects>
      <tilted>0</tilted></_>
    <_>
      <rects>
        <_>
          15 12 5 8 -1.</_>
        <_>
          15 16 5 4 2.</_></rects>
      <tilted>0</tilted></_>
    <_>
      <rects>
        <_>
          15 13 2 3 -1.</_>
        <_>
          16 13 1 3 2.</_></rects>
      <tilted>0</tilted></_>
    <_>
      <rects>
        <_>
          15 13 8 2 -1.</_>
        <_>
          19 13 4 2 2.</_></rects>
      <tilted>0</tilted></_>
    <_>
      <rects>
        <_>
          16 2 6 8 -1.</_>
        <_>
          16 2 3 4 2.</_>
        <_>
          19 6 3 4 2.</_></rects>
      <tilted>0</tilted></_>
    <_>
      <rects>
        <_>
          16 13 2 3 -1.</_>
        <_>
          17 13 1 3 2.</_></rects>
      <tilted>0</tilted></_>
    <_>
      <rects>
        <_>
          16 14 8 7 -1.</_>
        <_>
          20 14 4 7 2.</_></rects>
      <tilted>0</tilted></_>
    <_>
      <rects>
        <_>
          16 18 5 6 -1.</_>
        <_>
          16 21 5 3 2.</_></rects>
      <tilted>0</tilted></_>
    <_>
      <rects>
        <_>
          16 20 6 4 -1.</_>
        <_>
          16 22 6 2 2.</_></rects>
      <tilted>0</tilted></_>
    <_>
      <rects>
        <_>
          17 3 1 18 -1.</_>
        <_>
          17 9 1 6 2.</_></rects>
      <tilted>0</tilted></_>
    <_>
      <rects>
        <_>
          17 7 7 2 -1.</_>
        <_>
          17 8 7 1 2.</_></rects>
      <tilted>0</tilted></_>
    <_>
      <rects>
        <_>
          17 13 2 2 -1.</_>
        <_>
          18 13 1 2 2.</_></rects>
      <tilted>0</tilted></_>
    <_>
      <rects>
        <_>
          17 15 2 3 -1.</_>
        <_>
          18 15 1 3 2.</_></rects>
      <tilted>0</tilted></_>
    <_>
      <rects>
        <_>
          17 22 6 2 -1.</_>
        <_>
          17 22 3 1 2.</_>
        <_>
          20 23 3 1 2.</_></rects>
      <tilted>0</tilted></_>
    <_>
      <rects>
        <_>
          18 5 6 6 -1.</_>
        <_>
          18 8 6 3 2.</_></rects>
      <tilted>0</tilted></_>
    <_>
      <rects>
        <_>
          18 7 6 9 -1.</_>
        <_>
          21 7 3 9 2.</_></rects>
      <tilted>0</tilted></_>
    <_>
      <rects>
        <_>
          18 7 6 11 -1.</_>
        <_>
          21 7 3 11 2.</_></rects>
      <tilted>0</tilted></_>
    <_>
      <rects>
        <_>
          18 14 2 2 -1.</_>
        <_>
          18 15 2 1 2.</_></rects>
      <tilted>0</tilted></_>
    <_>
      <rects>
        <_>
          19 7 4 8 -1.</_>
        <_>
          21 7 2 8 2.</_></rects>
      <tilted>0</tilted></_>
    <_>
      <rects>
        <_>
          19 10 2 3 -1.</_>
        <_>
          20 10 1 3 2.</_></rects>
      <tilted>0</tilted></_>
    <_>
      <rects>
        <_>
          19 11 5 2 -1.</_>
        <_>
          19 12 5 1 2.</_></rects>
      <tilted>0</tilted></_>
    <_>
      <rects>
        <_>
          19 14 2 6 -1.</_>
        <_>
          19 14 1 3 2.</_>
        <_>
          20 17 1 3 2.</_></rects>
      <tilted>0</tilted></_>
    <_>
      <rects>
        <_>
          20 5 2 13 -1.</_>
        <_>
          21 5 1 13 2.</_></rects>
      <tilted>0</tilted></_>
    <_>
      <rects>
        <_>
          20 5 4 10 -1.</_>
        <_>
          22 5 2 10 2.</_></rects>
      <tilted>0</tilted></_>
    <_>
      <rects>
        <_>
          20 5 4 13 -1.</_>
        <_>
          22 5 2 13 2.</_></rects>
      <tilted>0</tilted></_>
    <_>
      <rects>
        <_>
          20 21 2 2 -1.</_>
        <_>
          20 21 1 1 2.</_>
        <_>
          21 22 1 1 2.</_></rects>
      <tilted>0</tilted></_>
    <_>
      <rects>
        <_>
          21 19 1 4 -1.</_>
        <_>
          21 21 1 2 2.</_></rects>
      <tilted>0</tilted></_>
    <_>
      <rects>
        <_>
          22 0 2 3 -1.</_>
        <_>
          23 0 1 3 2.</_></rects>
      <tilted>0</tilted></_>
    <_>
      <rects>
        <_>
          22 17 2 4 -1.</_>
        <_>
          22 17 1 2 2.</_>
        <_>
          23 19 1 2 2.</_></rects>
      <tilted>0</tilted></_>
    <_>
      <rects>
        <_>
          22 20 2 3 -1.</_>
        <_>
          23 20 1 3 2.</_></rects>
      <tilted>0</tilted></_>
    <_>
      <rects>
        <_>
          23 3 1 15 -1.</_>
        <_>
          23 8 1 5 2.</_></rects>
      <tilted>0</tilted></_>
    <_>
      <rects>
        <_>
          23 17 1 4 -1.</_>
        <_>
          23 19 1 2 2.</_></rects>
      <tilted>0</tilted></_>
    <_>
      <rects>
        <_>
          23 21 1 2 -1.</_>
        <_>
          23 22 1 1 2.</_></rects>
      <tilted>0</tilted></_></features></cascade>
</opencv_storage>
