<?xml version="1.0"?>
<opencv_storage>
<cascade>
  <stageType>BOOST</stageType>
  <featureType>HAAR</featureType>
  <height>24</height>
  <width>24</width>
  <stageParams>
    <boostType>GAB</boostType>
    <minHitRate>9.9500000476837158e-01</minHitRate>
    <maxFalseAlarm>5.0000000000000000e-01</maxFalseAlarm>
    <weightTrimRate>9.4999999999999996e-01</weightTrimRate>
    <maxDepth>1</maxDepth>
    <maxWeakCount>100</maxWeakCount></stageParams>
  <featureParams>
    <maxCatCount>0</maxCatCount>
    <featSize>1</featSize>
    <mode>BASIC</mode></featureParams>
  <stageNum>8</stageNum>
  <stages>
    <!-- stage 0 -->
    <_>
      <maxWeakCount>4</maxWeakCount>
      <stageThreshold>-1.8828701972961426e+00</stageThreshold>
      <weakClassifiers>
        <_>
          <internalNodes>
            0 -1 7 -6.6479191184043884e-02</internalNodes>
          <leafValues>
            9.9009899422526360e-03 -9.5091253519058228e-01</leafValues></_>
        <_>
          <internalNodes>
            0 -1 8 4.2211018502712250e-02</internalNodes>
          <leafValues>
            -8.0526679754257202e-01 6.9777333736419678e-01</leafValues></_>
        <_>
          <internalNodes>
            0 -1 26 -2.9164068400859833e-02</internalNodes>
          <leafValues>
            7.3478788137435913e-01 -5.6214118003845215e-01</leafValues></_>
        <_>
          <internalNodes>
            0 -1 28 2.5981660932302475e-02</internalNodes>
          <leafValues>
            -5.2536320686340332e-01 7.7087324857711792e-01</leafValues></_></weakClassifiers></_>
    <!-- stage 1 -->
    <_>
      <maxWeakCount>5</maxWeakCount>
      <stageThreshold>-2.1111342906951904e+00</stageThreshold>
      <weakClassifiers>
        <_>
          <internalNodes>
            0 -1 5 -5.8090366423130035e-02</internalNodes>
          <leafValues>
            -4.1666665673255920e-01 -9.5460611581802368e-01</leafValues></_>
        <_>
          <internalNodes>
            0 -1 32 -4.3323650956153870e-02</internalNodes>
          <leafValues>
            2.8036263585090637e-01 -7.4830573797225952e-01</leafValues></_>
        <_>
          <internalNodes>
            0 -1 4 -1.4655739068984985e-02</internalNodes>
          <leafValues>
            4.1503542661666870e-01 -5.7675284147262573e-01</leafValues></_>
        <_>
          <internalNodes>
            0 -1 2 1.3823095709085464e-02</internalNodes>
          <leafValues>
            -4.1070920228958130e-01 4.8162302374839783e-01</leafValues></_>
        <_>
          <internalNodes>
            0 -1 38 -2.6775188744068146e-02</internalNodes>
          <leafValues>
            6.5399396419525146e-01 -3.1309252977371216e-01</leafValues></_></weakClassifiers></_>
    <!-- stage 2 -->
    <_>
      <maxWeakCount>6</maxWeakCount>
      <stageThreshold>-1.8636482954025269e+00</stageThreshold>
      <weakClassifiers>
        <_>
          <internalNodes>
            0 -1 6 -6.6173493862152100e-02</internalNodes>
          <leafValues>
            -2.0000000298023224e-01 -9.4649684429168701e-01</leafValues></_>
        <_>
          <internalNodes>
            0 -1 36 2.7132343500852585e-02</internalNodes>
          <leafValues>
            -6.9776278734207153e-01 4.9947810173034668e-01</leafValues></_>
        <_>
          <internalNodes>
            0 -1 35 -5.4669253528118134e-02</internalNodes>
          <leafValues>
            5.4915732145309448e-01 -4.8193275928497314e-01</leafValues></_>
        <_>
          <internalNodes>
            0 -1 9 -1.4461339451372623e-02</internalNodes>
          <leafValues>
            5.1172852516174316e-01 -4.8296171426773071e-01</leafValues></_>
        <_>
          <internalNodes>
            0 -1 12 -2.0774077624082565e-02</internalNodes>
          <leafValues>
            -6.0797435045242310e-01 3.2485085725784302e-01</leafValues></_>
        <_>
          <internalNodes>
            0 -1 16 8.3831781521439552e-03</internalNodes>
          <leafValues>
            -3.8770693540573120e-01 5.7779306173324585e-01</leafValues></_></weakClassifiers></_>
    <!-- stage 3 -->
    <_>
      <maxWeakCount>6</maxWeakCount>
      <stageThreshold>-1.9636088609695435e+00</stageThreshold>
      <weakClassifiers>
        <_>
          <internalNodes>
            0 -1 17 -1.0675197839736938e-01</internalNodes>
          <leafValues>
            1.9047619402408600e-01 -9.2111653089523315e-01</leafValues></_>
        <_>
          <internalNodes>
            0 -1 27 -6.6286832094192505e-02</internalNodes>
          <leafValues>
            6.5434509515762329e-01 -6.9308435916900635e-01</leafValues></_>
        <_>
          <internalNodes>
            0 -1 3 -3.7295597791671753e-01</internalNodes>
          <leafValues>
            1.6873438656330109e-01 -8.3449280261993408e-01</leafValues></_>
        <_>
          <internalNodes>
            0 -1 33 3.3260043710470200e-03</internalNodes>
          <leafValues>
            1.2669275701045990e-01 -1.</leafValues></_>
        <_>
          <internalNodes>
            0 -1 45 -6.4014212694019079e-04</internalNodes>
          <leafValues>
            -8.1153124570846558e-01 1.8791311979293823e-01</leafValues></_>
        <_>
          <internalNodes>
            0 -1 29 7.5297628063708544e-04</internalNodes>
          <leafValues>
            1.7047889530658722e-01 -9.7562068700790405e-01</leafValues></_></weakClassifiers></_>
    <!-- stage 4 -->
    <_>
      <maxWeakCount>7</maxWeakCount>
      <stageThreshold>-2.2976660728454590e+00</stageThreshold>
      <weakClassifiers>
        <_>
          <internalNodes>
            0 -1 14 3.8770914077758789e-02</internalNodes>
          <leafValues>
            -9.1839218139648438e-01 -4.1666667908430099e-02</leafValues></_>
        <_>
          <internalNodes>
            0 -1 40 6.0534983873367310e-02</internalNodes>
          <leafValues>
            -6.7744469642639160e-01 4.3175607919692993e-01</leafValues></_>
        <_>
          <internalNodes>
            0 -1 21 -7.1897469460964203e-03</internalNodes>
          <leafValues>
            4.6779042482376099e-01 -4.3163037300109863e-01</leafValues></_>
        <_>
          <internalNodes>
            0 -1 18 7.0582171902060509e-03</internalNodes>
          <leafValues>
            -2.6673424243927002e-01 6.3022899627685547e-01</leafValues></_>
        <_>
          <internalNodes>
            0 -1 30 -2.6673958636820316e-03</internalNodes>
          <leafValues>
            -8.4471321105957031e-01 2.1544751524925232e-01</leafValues></_>
        <_>
          <internalNodes>
            0 -1 44 -2.5813153479248285e-03</internalNodes>
          <leafValues>
            -8.4289425611495972e-01 2.0696923136711121e-01</leafValues></_>
        <_>
          <internalNodes>
            0 -1 25 -1.0763538070023060e-02</internalNodes>
          <leafValues>
            3.8170582056045532e-01 -4.2588144540786743e-01</leafValues></_></weakClassifiers></_>
    <!-- stage 5 -->
    <_>
      <maxWeakCount>6</maxWeakCount>
      <stageThreshold>-2.3078651428222656e+00</stageThreshold>
      <weakClassifiers>
        <_>
          <internalNodes>
            0 -1 34 -3.5511650145053864e-02</internalNodes>
          <leafValues>
            3.6363637447357178e-01 -9.1007196903228760e-01</leafValues></_>
        <_>
          <internalNodes>
            0 -1 39 3.0789035372436047e-03</internalNodes>
          <leafValues>
            -8.2583206892013550e-01 -4.8587571829557419e-02</leafValues></_>
        <_>
          <internalNodes>
            0 -1 3 -3.7272381782531738e-01</internalNodes>
          <leafValues>
            1.6813981533050537e-01 -9.0111607313156128e-01</leafValues></_>
        <_>
          <internalNodes>
            0 -1 24 5.2515682764351368e-03</internalNodes>
          <leafValues>
            -5.6153047084808350e-01 3.5037922859191895e-01</leafValues></_>
        <_>
          <internalNodes>
            0 -1 0 -6.0485387220978737e-03</internalNodes>
          <leafValues>
            4.7857353091239929e-01 -3.7360763549804688e-01</leafValues></_>
        <_>
          <internalNodes>
            0 -1 43 6.2139201909303665e-03</internalNodes>
          <leafValues>
            -4.9979773163795471e-01 3.9197951555252075e-01</leafValues></_></weakClassifiers></_>
    <!-- stage 6 -->
    <_>
      <maxWeakCount>7</maxWeakCount>
      <stageThreshold>-1.9775162935256958e+00</stageThreshold>
      <weakClassifiers>
        <_>
          <internalNodes>
            0 -1 15 -5.4160557687282562e-02</internalNodes>
          <leafValues>
            -9.0464836359024048e-01 6.6666668653488159e-01</leafValues></_>
        <_>
          <internalNodes>
            0 -1 10 -3.5135034471750259e-02</internalNodes>
          <leafValues>
            5.3957843780517578e-01 -6.2547302246093750e-01</leafValues></_>
        <_>
          <internalNodes>
            0 -1 37 -1.0730559006333351e-02</internalNodes>
          <leafValues>
            3.6725744605064392e-01 -4.9704369902610779e-01</leafValues></_>
        <_>
          <internalNodes>
            0 -1 20 -1.0820730589330196e-02</internalNodes>
          <leafValues>
            -7.9162073135375977e-01 2.2952094674110413e-01</leafValues></_>
        <_>
          <internalNodes>
            0 -1 31 -2.5849498808383942e-02</internalNodes>
          <leafValues>
            4.1474482417106628e-01 -4.1774812340736389e-01</leafValues></_>
        <_>
          <internalNodes>
            0 -1 13 -5.0480261445045471e-02</internalNodes>
          <leafValues>
            2.5008448958396912e-01 -7.0913249254226685e-01</leafValues></_>
        <_>
          <internalNodes>
            0 -1 46 -5.4644234478473663e-04</internalNodes>
          <leafValues>
            -8.5801774263381958e-01 1.4463201165199280e-01</leafValues></_></weakClassifiers></_>
    <!-- stage 7 -->
    <_>
      <maxWeakCount>7</maxWeakCount>
      <stageThreshold>-2.1144120693206787e+00</stageThreshold>
      <weakClassifiers>
        <_>
          <internalNodes>
            0 -1 19 -6.5150961279869080e-02</internalNodes>
          <leafValues>
            4.6666666865348816e-01 -9.0567165613174438e-01</leafValues></_>
        <_>
          <internalNodes>
            0 -1 42 4.6102691441774368e-02</internalNodes>
          <leafValues>
            -6.9930809736251831e-01 4.2682066559791565e-02</leafValues></_>
        <_>
          <internalNodes>
            0 -1 22 -1.1304368963465095e-03</internalNodes>
          <leafValues>
            3.5451394319534302e-01 -4.6405565738677979e-01</leafValues></_>
        <_>
          <internalNodes>
            0 -1 1 4.8141159117221832e-02</internalNodes>
          <leafValues>
            1.8269842863082886e-01 -9.0679723024368286e-01</leafValues></_>
        <_>
          <internalNodes>
            0 -1 23 3.7928263191133738e-04</internalNodes>
          <leafValues>
            -7.0463913679122925e-01 2.1701692044734955e-01</leafValues></_>
        <_>
          <internalNodes>
            0 -1 11 -2.9984459280967712e-02</internalNodes>
          <leafValues>
            -8.4655630588531494e-01 1.4099986851215363e-01</leafValues></_>
        <_>
          <internalNodes>
            0 -1 41 -5.0525018014013767e-04</internalNodes>
          <leafValues>
            3.3556413650512695e-01 -4.1245612502098083e-01</leafValues></_></weakClassifiers></_></stages>
  <features>
    <_>
      <rects>
        <_>
          0 3 16 2 -1.</_>
        <_>
          0 4 16 1 2.</_></rects>
      <tilted>0</tilted></_>
    <_>
      <rects>
        <_>
          0 9 24 4 -1.</_>
        <_>
          12 9 12 4 2.</_></rects>
      <tilted>0</tilted></_>
    <_>
      <rects>
        <_>
          0 15 6 8 -1.</_>
        <_>
          0 15 3 4 2.</_>
        <_>
          3 19 3 4 2.</_></rects>
      <tilted>0</tilted></_>
    <_>
      <rects>
        <_>
          1 2 21 8 -1.</_>
        <_>
          8 2 7 8 2.</_></rects>
      <tilted>0</tilted></_>
    <_>
      <rects>
        <_>
          1 6 12 2 -1.</_>
        <_>
          7 6 6 2 2.</_></rects>
      <tilted>0</tilted></_>
    <_>
      <rects>
        <_>
          1 7 6 14 -1.</_>
        <_>
          4 7 3 14 2.</_></rects>
      <tilted>0</tilted></_>
    <_>
      <rects>
        <_>
          1 8 6 15 -1.</_>
        <_>
          4 8 3 15 2.</_></rects>
      <tilted>0</tilted></_>
    <_>
      <rects>
        <_>
          1 13 14 10 -1.</_>
        <_>
          1 13 7 5 2.</_>
        <_>
          8 18 7 5 2.</_></rects>
      <tilted>0</tilted></_>
    <_>
      <rects>
        <_>
          1 14 8 10 -1.</_>
        <_>
          1 14 4 5 2.</_>
        <_>
          5 19 4 5 2.</_></rects>
      <tilted>0</tilted></_>
    <_>
      <rects>
        <_>
          1 17 8 3 -1.</_>
        <_>
          5 17 4 3 2.</_></rects>
      <tilted>0</tilted></_>
    <_>
      <rects>
        <_>
          2 2 4 12 -1.</_>
        <_>
          2 2 2 6 2.</_>
        <_>
          4 8 2 6 2.</_></rects>
      <tilted>0</tilted></_>
    <_>
      <rects>
        <_>
          2 3 22 3 -1.</_>
        <_>
          13 3 11 3 2.</_></rects>
      <tilted>0</tilted></_>
    <_>
      <rects>
        <_>
          3 1 1 6 -1.</_>
        <_>
          3 3 1 2 2.</_></rects>
      <tilted>0</tilted></_>
    <_>
      <rects>
        <_>
          3 20 8 3 -1.</_>
        <_>
          3 21 8 1 2.</_></rects>
      <tilted>0</tilted></_>
    <_>
      <rects>
        <_>
          4 4 8 6 -1.</_>
        <_>
          4 4 4 3 2.</_>
        <_>
          8 7 4 3 2.</_></rects>
      <tilted>0</tilted></_>
    <_>
      <rects>
        <_>
          4 5 13 15 -1.</_>
        <_>
          4 10 13 5 2.</_></rects>
      <tilted>0</tilted></_>
    <_>
      <rects>
        <_>
          4 11 4 6 -1.</_>
        <_>
          6 11 2 6 2.</_></rects>
      <tilted>0</tilted></_>
    <_>
      <rects>
        <_>
          4 12 16 6 -1.</_>
        <_>
          4 15 16 3 2.</_></rects>
      <tilted>0</tilted></_>
    <_>
      <rects>
        <_>
          4 18 4 4 -1.</_>
        <_>
          4 18 2 2 2.</_>
        <_>
          6 20 2 2 2.</_></rects>
      <tilted>0</tilted></_>
    <_>
      <rects>
        <_>
          4 20 12 4 -1.</_>
        <_>
          4 22 12 2 2.</_></rects>
      <tilted>0</tilted></_>
    <_>
      <rects>
        <_>
          5 15 1 3 -1.</_>
        <_>
          5 16 1 1 2.</_></rects>
      <tilted>0</tilted></_>
    <_>
      <rects>
        <_>
          6 4 3 4 -1.</_>
        <_>
          6 6 3 2 2.</_></rects>
      <tilted>0</tilted></_>
    <_>
      <rects>
        <_>
          6 5 2 2 -1.</_>
        <_>
          6 6 2 1 2.</_></rects>
      <tilted>0</tilted></_>
    <_>
      <rects>
        <_>
          6 12 6 7 -1.</_>
        <_>
          9 12 3 7 2.</_></rects>
      <tilted>0</tilted></_>
    <_>
      <rects>
        <_>
          7 9 4 9 -1.</_>
        <_>
          9 9 2 9 2.</_></rects>
      <tilted>0</tilted></_>
    <_>
      <rects>
        <_>
          7 15 4 6 -1.</_>
        <_>
          7 18 4 3 2.</_></rects>
      <tilted>0</tilted></_>
    <_>
      <rects>
        <_>
          8 0 4 8 -1.</_>
        <_>
          8 4 4 4 2.</_></rects>
      <tilted>0</tilted></_>
    <_>
      <rects>
        <_>
          8 1 8 6 -1.</_>
        <_>
          8 4 8 3 2.</_></rects>
      <tilted>0</tilted></_>
    <_>
      <rects>
        <_>
          8 14 16 6 -1.</_>
        <_>
          8 14 8 3 2.</_>
        <_>
          16 17 8 3 2.</_></rects>
      <tilted>0</tilted></_>
    <_>
      <rects>
        <_>
          11 22 2 2 -1.</_>
        <_>
          12 22 1 2 2.</_></rects>
      <tilted>0</tilted></_>
    <_>
      <rects>
        <_>
          12 1 2 23 -1.</_>
        <_>
          13 1 1 23 2.</_></rects>
      <tilted>0</tilted></_>
    <_>
      <rects>
        <_>
          13 1 6 10 -1.</_>
        <_>
          13 6 6 5 2.</_></rects>
      <tilted>0</tilted></_>
    <_>
      <rects>
        <_>
          13 13 5 8 -1.</_>
        <_>
          13 17 5 4 2.</_></rects>
      <tilted>0</tilted></_>
    <_>
      <rects>
        <_>
          13 14 2 10 -1.</_>
        <_>
          14 14 1 10 2.</_></rects>
      <tilted>0</tilted></_>
    <_>
      <rects>
        <_>
          13 16 8 6 -1.</_>
        <_>
          13 16 4 3 2.</_>
        <_>
          17 19 4 3 2.</_></rects>
      <tilted>0</tilted></_>
    <_>
      <rects>
        <_>
          14 8 8 11 -1.</_>
        <_>
          18 8 4 11 2.</_></rects>
      <tilted>0</tilted></_>
    <_>
      <rects>
        <_>
          15 6 6 4 -1.</_>
        <_>
          18 6 3 4 2.</_></rects>
      <tilted>0</tilted></_>
    <_>
      <rects>
        <_>
          15 12 2 8 -1.</_>
        <_>
          15 16 2 4 2.</_></rects>
      <tilted>0</tilted></_>
    <_>
      <rects>
        <_>
          15 12 6 7 -1.</_>
        <_>
          18 12 3 7 2.</_></rects>
      <tilted>0</tilted></_>
    <_>
      <rects>
        <_>
          15 20 4 4 -1.</_>
        <_>
          15 22 4 2 2.</_></rects>
      <tilted>0</tilted></_>
    <_>
      <rects>
        <_>
          17 6 6 15 -1.</_>
        <_>
          20 6 3 15 2.</_></rects>
      <tilted>0</tilted></_>
    <_>
      <rects>
        <_>
          17 22 6 2 -1.</_>
        <_>
          17 22 3 1 2.</_>
        <_>
          20 23 3 1 2.</_></rects>
      <tilted>0</tilted></_>
    <_>
      <rects>
        <_>
          18 6 6 15 -1.</_>
        <_>
          21 6 3 15 2.</_></rects>
      <tilted>0</tilted></_>
    <_>
      <rects>
        <_>
          18 16 6 6 -1.</_>
        <_>
          21 16 3 6 2.</_></rects>
      <tilted>0</tilted></_>
    <_>
      <rects>
        <_>
          20 18 4 4 -1.</_>
        <_>
          20 20 4 2 2.</_></rects>
      <tilted>0</tilted></_>
    <_>
      <rects>
        <_>
          21 17 2 5 -1.</_>
        <_>
          22 17 1 5 2.</_></rects>
      <tilted>0</tilted></_>
    <_>
      <rects>
        <_>
          21 22 2 2 -1.</_>
        <_>
          21 23 2 1 2.</_></rects>
      <tilted>0</tilted></_></features></cascade>
</opencv_storage>
